digraph Tree {
node [shape=box, style="filled, rounded", color="black", fontname=helvetica] ;
edge [fontname=helvetica] ;
0 [label=<Gx &le; -3.239<br/>gini = 0.011<br/>samples = 15186<br/>value = [85, 15101]<br/>class = 1>, fillcolor="#399de5fe"] ;
1 [label=<Gx &le; -3.402<br/>gini = 0.13<br/>samples = 43<br/>value = [40, 3]<br/>class = 0>, fillcolor="#e58139ec"] ;
0 -> 1 [labeldistance=2.5, labelangle=45, headlabel="True"] ;
2 [label=<gini = 0.0<br/>samples = 37<br/>value = [37, 0]<br/>class = 0>, fillcolor="#e58139ff"] ;
1 -> 2 ;
3 [label=<Gy &le; -0.085<br/>gini = 0.5<br/>samples = 6<br/>value = [3, 3]<br/>class = 0>, fillcolor="#e5813900"] ;
1 -> 3 ;
4 [label=<gini = 0.0<br/>samples = 3<br/>value = [0, 3]<br/>class = 1>, fillcolor="#399de5ff"] ;
3 -> 4 ;
5 [label=<gini = 0.0<br/>samples = 3<br/>value = [3, 0]<br/>class = 0>, fillcolor="#e58139ff"] ;
3 -> 5 ;
6 [label=<Gx &le; 3.43<br/>gini = 0.006<br/>samples = 15143<br/>value = [45, 15098]<br/>class = 1>, fillcolor="#399de5fe"] ;
0 -> 6 [labeldistance=2.5, labelangle=-45, headlabel="False"] ;
7 [label=<Gx &le; 3.128<br/>gini = 0.002<br/>samples = 15111<br/>value = [13, 15098]<br/>class = 1>, fillcolor="#399de5ff"] ;
6 -> 7 ;
8 [label=<gini = 0.001<br/>samples = 15101<br/>value = [9, 15092]<br/>class = 1>, fillcolor="#399de5ff"] ;
7 -> 8 ;
9 [label=<gini = 0.48<br/>samples = 10<br/>value = [4, 6]<br/>class = 1>, fillcolor="#399de555"] ;
7 -> 9 ;
10 [label=<gini = 0.0<br/>samples = 32<br/>value = [32, 0]<br/>class = 0>, fillcolor="#e58139ff"] ;
6 -> 10 ;
}
